digraph Tree {
node [shape=box] ;
0 [label="petal length (cm) <= 2.6\nentropy = 1.581\nsamples = 100\nvalue = [32, 37, 31]"] ;
1 [label="entropy = 0.0\nsamples = 32\nvalue = [32, 0, 0]"] ;
0 -> 1 [labeldistance=2.5, labelangle=45, headlabel="True"] ;
2 [label="petal length (cm) <= 4.75\nentropy = 0.994\nsamples = 68\nvalue = [0, 37, 31]"] ;
0 -> 2 [labeldistance=2.5, labelangle=-45, headlabel="False"] ;
3 [label="entropy = 0.0\nsamples = 34\nvalue = [0, 34, 0]"] ;
2 -> 3 ;
4 [label="petal length (cm) <= 5.15\nentropy = 0.431\nsamples = 34\nvalue = [0, 3, 31]"] ;
2 -> 4 ;
5 [label="sepal width (cm) <= 3.1\nentropy = 0.881\nsamples = 10\nvalue = [0, 3, 7]"] ;
4 -> 5 ;
6 [label="petal width (cm) <= 1.7\nentropy = 0.764\nsamples = 9\nvalue = [0, 2, 7]"] ;
5 -> 6 ;
7 [label="petal length (cm) <= 4.95\nentropy = 1.0\nsamples = 4\nvalue = [0, 2, 2]"] ;
6 -> 7 ;
8 [label="entropy = 0.0\nsamples = 1\nvalue = [0, 1, 0]"] ;
7 -> 8 ;
9 [label="petal width (cm) <= 1.55\nentropy = 0.918\nsamples = 3\nvalue = [0, 1, 2]"] ;
7 -> 9 ;
10 [label="entropy = 0.0\nsamples = 2\nvalue = [0, 0, 2]"] ;
9 -> 10 ;
11 [label="entropy = 0.0\nsamples = 1\nvalue = [0, 1, 0]"] ;
9 -> 11 ;
12 [label="entropy = 0.0\nsamples = 5\nvalue = [0, 0, 5]"] ;
6 -> 12 ;
13 [label="entropy = 0.0\nsamples = 1\nvalue = [0, 1, 0]"] ;
5 -> 13 ;
14 [label="entropy = 0.0\nsamples = 24\nvalue = [0, 0, 24]"] ;
4 -> 14 ;
}