digraph Tree {
node [shape=box] ;
0 [label="petal width (cm) <= 0.75\nentropy = 1.583\nsamples = 100\nvalue = [35, 34, 31]"] ;
1 [label="entropy = 0.0\nsamples = 35\nvalue = [35, 0, 0]"] ;
0 -> 1 [labeldistance=2.5, labelangle=45, headlabel="True"] ;
2 [label="petal width (cm) <= 1.75\nentropy = 0.998\nsamples = 65\nvalue = [0, 34, 31]"] ;
0 -> 2 [labeldistance=2.5, labelangle=-45, headlabel="False"] ;
3 [label="petal length (cm) <= 5.05\nentropy = 0.485\nsamples = 38\nvalue = [0, 34, 4]"] ;
2 -> 3 ;
4 [label="sepal length (cm) <= 4.95\nentropy = 0.191\nsamples = 34\nvalue = [0, 33, 1]"] ;
3 -> 4 ;
5 [label="entropy = 0.0\nsamples = 1\nvalue = [0, 0, 1]"] ;
4 -> 5 ;
6 [label="entropy = 0.0\nsamples = 33\nvalue = [0, 33, 0]"] ;
4 -> 6 ;
7 [label="sepal length (cm) <= 6.05\nentropy = 0.811\nsamples = 4\nvalue = [0, 1, 3]"] ;
3 -> 7 ;
8 [label="entropy = 0.0\nsamples = 1\nvalue = [0, 1, 0]"] ;
7 -> 8 ;
9 [label="entropy = 0.0\nsamples = 3\nvalue = [0, 0, 3]"] ;
7 -> 9 ;
10 [label="entropy = 0.0\nsamples = 27\nvalue = [0, 0, 27]"] ;
2 -> 10 ;
}